{
  "weight_history": [
    [
      -0.9572541031584374,
      -0.5301869942175488,
      -0.4009254598269295,
      0.20805355578121973,
      -0.5514705665247037,
      0.5765867452692445,
      0.3439443855978607,
      0.7350597183321319,
      0.30236090992916237,
      0.39765705338760743,
      0.5868438951458587,
      -0.06675677499818977,
      0.693975539109626,
      -0.15055159516436362,
      -0.007430182550872265,
      0.24751645329092725,
      0.8355936972760891,
      0.23351666253383366,
      0.6558653786905019,
      -0.412143770973686,
      -0.2239505284491845,
      0.1952892938454076,
      0.7077268986342673,
      0.12402526488789563,
      0.4960137636975012,
      -0.12695457738372865,
      0.42853414498725517,
      0.39193018347639874,
      -0.05227308879926184,
      0.6275354500284585,
      0.22543187189875974,
      0.8756721995859169,
      0.11912480710419748,
      -0.2018098771057941,
      -0.18789606634891393,
      -0.6126587195269957,
      0.14170428917315636,
      0.05253331959990716,
      0.6082633040762127,
      -0.11954266333158872,
      0.5241959109488868,
      0.5209836270922893,
      0.24680336758736474,
      0.3628035160713936,
      -0.07073886408078868,
      0.19271034818208033,
      0.4846364535294277,
      0.42897753216881973,
      0.36531955137012634,
      0.07488375417722229,
      0.15669984765049266,
      -0.7305424347663104,
      0.4935476740911392,
      -0.8392611660687403
    ],
    [
      -0.9572541031584374,
      -0.5301869942175488,
      -0.4009254598269295,
      0.20805355578121973,
      -0.5514705665247037,
      0.5765867452692445,
      0.3439443855978607,
      0.7350597183321319,
      0.30236090992916237,
      0.39765705338760743,
      0.5868438951458587,
      -0.06675677499818977,
      0.693975539109626,
      -0.15055159516436362,
      -0.007430182550872265,
      0.24751645329092725,
      0.8355936972760891,
      0.23351666253383366,
      0.6558653786905019,
      -0.412143770973686,
      -0.2239505284491845,
      0.1952892938454076,
      0.7077268986342673,
      0.12402526488789563,
      0.4960137636975012,
      -0.12695457738372865,
      0.42853414498725517,
      0.39193018347639874,
      -0.05227308879926184,
      0.6275354500284585,
      0.22543187189875974,
      0.8756721995859169,
      0.11912480710419748,
      -0.2018098771057941,
      -0.18789606634891393,
      -0.6126587195269957,
      0.14170428917315636,
      0.05253331959990716,
      0.6082633040762127,
      -0.11954266333158872,
      0.5241959109488868,
      0.5209836270922893,
      0.24680336758736474,
      0.3628035160713936,
      -0.07073886408078868,
      0.19271034818208033,
      0.4846364535294277,
      0.42897753216881973,
      0.36531955137012634,
      0.07488375417722229,
      0.15669984765049266,
      -0.7305424347663104,
      0.4935476740911392,
      -0.8392611660687403
    ],
    [
      -0.9572541031584374,
      -0.5301869942175488,
      -0.4009254598269295,
      0.20805355578121973,
      -0.5514705665247037,
      0.5765867452692445,
      0.3439443855978607,
      0.7350597183321319,
      0.30236090992916237,
      0.39765705338760743,
      0.5868438951458587,
      -0.06675677499818977,
      0.693975539109626,
      -0.15055159516436362,
      -0.007430182550872265,
      0.24751645329092725,
      0.8355936972760891,
      0.23351666253383366,
      0.6558653786905019,
      -0.412143770973686,
      -0.2239505284491845,
      0.1952892938454076,
      0.7077268986342673,
      0.12402526488789563,
      0.4960137636975012,
      -0.12695457738372865,
      0.42853414498725517,
      0.39193018347639874,
      -0.05227308879926184,
      0.6275354500284585,
      0.22543187189875974,
      0.8756721995859169,
      0.11912480710419748,
      -0.2018098771057941,
      -0.18789606634891393,
      -0.6126587195269957,
      0.14170428917315636,
      0.05253331959990716,
      0.6082633040762127,
      -0.11954266333158872,
      0.5241959109488868,
      0.5209836270922893,
      0.24680336758736474,
      0.3628035160713936,
      -0.07073886408078868,
      0.19271034818208033,
      0.4846364535294277,
      0.42897753216881973,
      0.36531955137012634,
      0.07488375417722229,
      0.15669984765049266,
      -0.7305424347663104,
      0.4935476740911392,
      -0.8392611660687403
    ],
    [
      -0.9572541031584374,
      -0.5301869942175488,
      -0.4009254598269295,
      0.20805355578121973,
      -0.5514705665247037,
      0.5765867452692445,
      0.3439443855978607,
      0.7350597183321319,
      0.30236090992916237,
      0.39765705338760743,
      0.5868438951458587,
      -0.06675677499818977,
      0.693975539109626,
      -0.15055159516436362,
      -0.007430182550872265,
      0.24751645329092725,
      0.8355936972760891,
      0.23351666253383366,
      0.6558653786905019,
      -0.412143770973686,
      -0.2239505284491845,
      0.1952892938454076,
      0.7077268986342673,
      0.12402526488789563,
      0.4960137636975012,
      -0.12695457738372865,
      0.42853414498725517,
      0.39193018347639874,
      -0.05227308879926184,
      0.6275354500284585,
      0.22543187189875974,
      0.8756721995859169,
      0.11912480710419748,
      -0.2018098771057941,
      -0.18789606634891393,
      -0.6126587195269957,
      0.14170428917315636,
      0.05253331959990716,
      0.6082633040762127,
      -0.11954266333158872,
      0.5241959109488868,
      0.5209836270922893,
      0.24680336758736474,
      0.3628035160713936,
      -0.07073886408078868,
      0.19271034818208033,
      0.4846364535294277,
      0.42897753216881973,
      0.36531955137012634,
      0.07488375417722229,
      0.15669984765049266,
      -0.7305424347663104,
      0.4935476740911392,
      -0.8392611660687403
    ],
    [
      -0.9572541031584374,
      -0.5301869942175488,
      -0.4009254598269295,
      0.20805355578121973,
      -0.5514705665247037,
      0.5765867452692445,
      0.3439443855978607,
      0.7350597183321319,
      0.30236090992916237,
      0.39765705338760743,
      0.5868438951458587,
      -0.06675677499818977,
      0.693975539109626,
      -0.15055159516436362,
      -0.007430182550872265,
      0.24751645329092725,
      0.8355936972760891,
      0.23351666253383366,
      0.6558653786905019,
      -0.412143770973686,
      -0.2239505284491845,
      0.1952892938454076,
      0.7077268986342673,
      0.12402526488789563,
      0.4960137636975012,
      -0.12695457738372865,
      0.42853414498725517,
      0.39193018347639874,
      -0.05227308879926184,
      0.6275354500284585,
      0.22543187189875974,
      0.8756721995859169,
      0.11912480710419748,
      -0.2018098771057941,
      -0.18789606634891393,
      -0.6126587195269957,
      0.14170428917315636,
      0.05253331959990716,
      0.6082633040762127,
      -0.11954266333158872,
      0.5241959109488868,
      0.5209836270922893,
      0.24680336758736474,
      0.3628035160713936,
      -0.07073886408078868,
      0.19271034818208033,
      0.4846364535294277,
      0.42897753216881973,
      0.36531955137012634,
      0.07488375417722229,
      0.15669984765049266,
      -0.7305424347663104,
      0.4935476740911392,
      -0.8392611660687403
    ],
    [
      -0.9572541031584374,
      -0.5301869942175488,
      -0.4009254598269295,
      0.20805355578121973,
      -0.5514705665247037,
      0.5765867452692445,
      0.3439443855978607,
      0.7350597183321319,
      0.30236090992916237,
      0.39765705338760743,
      0.5868438951458587,
      -0.06675677499818977,
      0.693975539109626,
      -0.15055159516436362,
      -0.007430182550872265,
      0.24751645329092725,
      0.8355936972760891,
      0.23351666253383366,
      0.6558653786905019,
      -0.412143770973686,
      -0.2239505284491845,
      0.1952892938454076,
      0.7077268986342673,
      0.12402526488789563,
      0.4960137636975012,
      -0.12695457738372865,
      0.42853414498725517,
      0.39193018347639874,
      -0.05227308879926184,
      0.6275354500284585,
      0.22543187189875974,
      0.8756721995859169,
      0.11912480710419748,
      -0.2018098771057941,
      -0.18789606634891393,
      -0.6126587195269957,
      0.14170428917315636,
      0.05253331959990716,
      0.6082633040762127,
      -0.11954266333158872,
      0.5241959109488868,
      0.5209836270922893,
      0.24680336758736474,
      0.3628035160713936,
      -0.07073886408078868,
      0.19271034818208033,
      0.4846364535294277,
      0.42897753216881973,
      0.36531955137012634,
      0.07488375417722229,
      0.15669984765049266,
      -0.7305424347663104,
      0.4935476740911392,
      -0.8392611660687403
    ]
  ],
  "generation_labels": [
    6,
    7,
    8,
    9,
    10,
    11
  ],
  "layer_info": [
    {
      "level": 0,
      "input_size": 5,
      "output_size": 6,
      "weight_count": 30,
      "start_idx": 0,
      "end_idx": 30
    },
    {
      "level": 1,
      "input_size": 6,
      "output_size": 4,
      "weight_count": 24,
      "start_idx": 30,
      "end_idx": 54
    }
  ]
}